<Nnet> 
<Splice> 440 40 
[ -5 -4 -3 -2 -1 0 1 2 3 4 5 ]
<AddShift> 440 440 
<LearnRateCoef> 0  [ 0.07649723 0.0005834474 -0.01155124 0.00951119 -0.1571244 -0.005637656 0.007456392 0.007123908 0.07118403 0.01726634 0.02006727 -0.003041343 0.0008307421 -0.01726983 -0.02800189 -0.009994234 -0.0128071 -0.003321833 -0.005311472 0.03011542 0.005412525 0.09560441 0.006767092 -0.04569206 -0.01683944 -0.04157329 -0.005832566 -0.0005198942 0.00306273 0.04696753 -0.02065667 0.01786107 -0.03458002 0.02315651 0.01079791 0.006362087 0.004105861 0.004280135 0.00525033 0.002247454 0.07304925 0.0009639177 -0.01229428 0.009181973 -0.1545388 -0.005312995 0.00768572 0.007408457 0.07105582 0.0190142 0.02030722 -0.002670409 0.0008388957 -0.01593034 -0.02759398 -0.00924413 -0.01261745 -0.003261917 -0.004787494 0.03060121 0.005531698 0.09467752 0.006713089 -0.04566135 -0.01677856 -0.04072678 -0.005807993 -0.0005194546 0.003135422 0.04742069 -0.02008817 0.01702334 -0.03410649 0.0227034 0.01097583 0.006408429 0.003967389 0.004192545 0.00444456 0.002290623 0.07000529 0.001524327 -0.01302479 0.008858704 -0.1523213 -0.004930922 0.007937393 0.007731563 0.07086357 0.02057249 0.02051773 -0.002337791 0.0008882746 -0.01479528 -0.02716909 -0.00848482 -0.01246093 -0.003203489 -0.004348705 0.03104364 0.005675779 0.09391503 0.006640672 -0.04561543 -0.01669704 -0.03995603 -0.005805169 -0.0004760925 0.003182094 0.04794439 -0.01960063 0.01635017 -0.03371452 0.02232892 0.01111931 0.006497778 0.00379727 0.004075419 0.003681995 0.002370117 0.06727181 0.002220411 -0.01375333 0.008525541 -0.1503839 -0.004489189 0.008176814 0.008074165 0.07035983 0.02197158 0.02075995 -0.001972147 0.0009484288 -0.01384323 -0.02674941 -0.007795912 -0.01231724 -0.003114478 -0.003972899 0.03146571 0.005828729 0.09335275 0.006576451 -0.04580747 -0.01684768 -0.03924022 -0.005806289 -0.0003536909 0.003229214 0.04853922 -0.01914881 0.0157768 -0.03330037 0.02198348 0.01119465 0.006605605 0.003700603 0.00393294 0.002954036 0.002484163 0.06473617 0.003040457 -0.01446648 0.008210212 -0.1487206 -0.003995838 0.008389618 0.008441727 0.06970391 0.02322797 0.02100234 -0.001562801 0.0009719965 -0.01303306 -0.02632727 -0.007250945 -0.01214994 -0.002990182 -0.003506509 0.0318551 0.005982638 0.092993 0.006510459 -0.04614675 -0.01680804 -0.0386675 -0.005782424 -0.0002328771 0.003318826 0.04918172 -0.01882523 0.01522824 -0.03286954 0.02178014 0.011245 0.006717392 0.00362603 0.003746037 0.002225821 0.002572686 0.06233946 0.003974885 -0.01516507 0.007796648 -0.1473078 -0.003465154 0.008550008 0.008834786 0.06897676 0.02436891 0.02121037 -0.001155911 0.0009571044 -0.01237586 -0.0258857 -0.00690074 -0.0119307 -0.002906556 -0.003051291 0.03220853 0.006144801 0.09292492 0.00644542 -0.04648682 -0.01650144 -0.03798361 -0.005684213 -0.0001246011 0.003419291 0.0498785 -0.01863211 0.01468046 -0.03244495 0.02159228 0.01123743 0.006851304 0.003457351 0.003560702 0.001557694 0.002604379 0.05994276 0.004909314 -0.01586367 0.007383085 -0.145895 -0.002934471 0.008710396 0.009227846 0.06824962 0.02550985 0.02141839 -0.0007490208 0.0009422122 -0.01171866 -0.02544413 -0.006550536 -0.01171145 -0.002822929 -0.002596072 0.03256196 0.006306964 0.09285682 0.006380381 -0.0468269 -0.01619484 -0.03729972 -0.005586002 -1.632511e-05 0.003519756 0.05057529 -0.01843898 0.01413268 -0.03202036 0.02140443 0.01122986 0.006985216 0.003288672 0.003375367 0.0008895673 0.002636072 0.05754586 0.005624137 -0.01652347 0.006762529 -0.1445138 -0.002486459 0.008822699 0.009616778 0.06759042 0.026666 0.02165494 -0.0002783204 0.0008964191 -0.01102585 -0.02506822 -0.006293521 -0.01144116 -0.002735216 -0.002483993 0.03291328 0.006448585 0.09279122 0.00629275 -0.04709783 -0.01590848 -0.03661222 -0.005446702 6.620299e-05 0.003509874 0.05102852 -0.01836754 0.01333203 -0.03153769 0.02115898 0.01126429 0.007170168 0.003069428 0.003125381 0.0002065029 0.002691883 0.05517238 0.006122488 -0.01712259 0.005953641 -0.1431056 -0.002139553 0.008896464 0.01000359 0.06696212 0.02784254 0.02191726 0.0002256168 0.0008617001 -0.01031089 -0.02478072 -0.006115858 -0.01112119 -0.002601832 -0.002427318 0.03327543 0.006543745 0.09261899 0.006285566 -0.04719535 -0.01559648 -0.03621856 -0.00526327 8.380212e-05 0.003426834 0.05122801 -0.01821566 0.01241894 -0.030974 0.02101226 0.01130127 0.007264332 0.00278982 0.002827735 -0.0004559636 0.002781734 0.05280449 0.006394434 -0.01766668 0.005054056 -0.1417401 -0.001909316 0.008982345 0.01037861 0.06652028 0.02904052 0.02216362 0.0006719509 0.0008083163 -0.009811167 -0.02458199 -0.006013499 -0.01079465 -0.002472065 -0.002312308 0.03363458 0.00660127 0.09245546 0.006290193 -0.04707693 -0.01530229 -0.03583123 -0.005079203 3.290512e-05 0.003207566 0.05119511 -0.01778495 0.01157695 -0.0302665 0.02079697 0.011345 0.007310144 0.002577592 0.002494545 -0.001087745 0.002880952 0.05044151 0.006427664 -0.0181463 0.00428777 -0.1403421 -0.001805868 0.00907422 0.01074361 0.06628031 0.03027698 0.02237269 0.001045362 0.0007736749 -0.009302769 -0.02445334 -0.005905345 -0.01051142 -0.00245458 -0.002147653 0.03397709 0.006639957 0.09220281 0.006300578 -0.04684204 -0.01507597 -0.03552713 -0.004862782 -6.309731e-06 0.003054655 0.05095173 -0.01728862 0.01096936 -0.0295267 0.02050894 0.0113779 0.007413979 0.002396233 0.002200955 -0.001679639 0.003035862 ]
<Rescale> 440 440 
<LearnRateCoef> 0  [ 0.3218897 0.5175688 0.4823479 0.7255447 0.5577236 0.6980165 0.8153866 0.6608896 0.5119765 0.6561984 0.7829196 0.6582958 0.9262133 0.6433358 0.7655523 0.8484068 0.8621789 0.9292617 0.6387257 0.7153965 0.9299428 0.5549879 0.8786524 0.6482583 0.6398904 0.6365546 0.944247 0.8868069 0.9248191 0.8782197 0.7678459 0.8218179 0.8478521 0.7663864 1.010255 0.9263357 0.9251137 0.9231313 0.8858641 0.970807 0.3223499 0.5175358 0.4825024 0.7254367 0.5580059 0.6979637 0.8152385 0.660789 0.5120203 0.6558789 0.7828123 0.6583577 0.9262897 0.6434437 0.7655207 0.8481815 0.8620951 0.9288714 0.6386464 0.7152539 0.9297868 0.5549892 0.878391 0.6482781 0.6399043 0.6363322 0.9443462 0.8865078 0.9242359 0.878139 0.7676435 0.82195 0.8471816 0.7663347 1.010253 0.9261287 0.924539 0.9228098 0.8853977 0.9706765 0.3227661 0.5174857 0.4826568 0.7253534 0.558264 0.6979502 0.8151194 0.6607009 0.5120766 0.6556178 0.7827375 0.658416 0.926371 0.6435415 0.7655277 0.8480273 0.8620304 0.9285305 0.6385741 0.7151412 0.9296821 0.5550072 0.8782045 0.6483245 0.6399226 0.6361033 0.9444771 0.8862466 0.9236791 0.8781579 0.7674494 0.8221718 0.8465866 0.7662657 1.010272 0.925918 0.9239659 0.9225219 0.8849883 0.9705786 0.3231467 0.5174068 0.4828121 0.7252797 0.5585085 0.6979612 0.8150392 0.6606138 0.5122294 0.6553854 0.7826587 0.6584979 0.926447 0.6436161 0.7655328 0.8478099 0.8619363 0.9281957 0.6385165 0.7150275 0.9295993 0.5550604 0.8781468 0.6483976 0.639963 0.6359182 0.9445205 0.8860188 0.9231815 0.8781735 0.7672641 0.8222541 0.846077 0.7662181 1.010279 0.9260144 0.9236125 0.9222776 0.8846123 0.9704774 0.3235054 0.5172887 0.4829641 0.7252133 0.5587294 0.6979834 0.8150083 0.6605176 0.5124456 0.6551549 0.7825581 0.6586019 0.9265658 0.6436819 0.765506 0.8475772 0.8618318 0.9279755 0.6384639 0.7148972 0.9295068 0.5551103 0.8782991 0.6485528 0.6400288 0.635745 0.9445418 0.8862084 0.9227952 0.8780513 0.7670797 0.8223256 0.8460121 0.76617 1.010262 0.9261864 0.9232942 0.9220737 0.8842303 0.9703886 0.3238435 0.5171255 0.4831126 0.7251924 0.5589228 0.6979955 0.8150454 0.6604038 0.5126919 0.6548929 0.7824851 0.658711 0.9268232 0.6437342 0.7654089 0.8474723 0.8617921 0.9278699 0.6384278 0.7147374 0.9293361 0.5552375 0.8786017 0.6487485 0.6401437 0.6356196 0.9447713 0.8867182 0.9225078 0.8776194 0.7669303 0.8229234 0.8461383 0.7661456 1.010195 0.9264235 0.9231453 0.9218616 0.8838447 0.9703717 0.3241828 0.5169626 0.4832613 0.7251714 0.5591167 0.6980077 0.8150824 0.6602902 0.5129386 0.6546316 0.7824122 0.6588202 0.9270809 0.6437866 0.765312 0.8473674 0.8617526 0.9277643 0.6383918 0.7145777 0.9291654 0.5553648 0.8789045 0.6489443 0.6402586 0.6354945 0.9450011 0.8872289 0.9222205 0.8771885 0.7667811 0.8235226 0.8462647 0.7661212 1.010127 0.926661 0.9229965 0.9216496 0.8834597 0.9703548 0.3245236 0.5168145 0.4833968 0.7253327 0.5593215 0.6979589 0.8151619 0.6601547 0.5131958 0.6542946 0.7824274 0.6589349 0.927308 0.6438515 0.7650936 0.8474212 0.861909 0.9277468 0.6384284 0.7143632 0.9288948 0.5555173 0.8793233 0.649198 0.6403855 0.6355119 0.9453161 0.88789 0.9221932 0.876478 0.7667333 0.8241324 0.8467302 0.7661566 1.010031 0.9270256 0.9229342 0.9216217 0.8830149 0.9704332 0.3248627 0.5166886 0.4835139 0.7255479 0.559578 0.6978593 0.8152282 0.6600058 0.5134844 0.6539037 0.7824588 0.659063 0.927551 0.6439438 0.7647938 0.8474919 0.8620669 0.927891 0.638482 0.7141084 0.9285639 0.5557062 0.879899 0.649501 0.6405196 0.6355906 0.945516 0.8887455 0.9224082 0.8756196 0.7667965 0.8245754 0.8475617 0.7662147 1.009884 0.9274276 0.9231121 0.9216877 0.8825494 0.9704846 0.3252035 0.516598 0.4836151 0.7257498 0.5598658 0.6977227 0.8152643 0.6598478 0.5137595 0.6534842 0.7824559 0.6591915 0.9278092 0.6440498 0.7644376 0.8475044 0.8621451 0.9281917 0.6385425 0.7138283 0.9281995 0.5559326 0.8805356 0.649848 0.6406729 0.6357382 0.945653 0.8897121 0.9227117 0.8747073 0.7670915 0.8249657 0.8484753 0.7663487 1.009718 0.9279886 0.9235647 0.9217802 0.8820872 0.9705227 0.3255496 0.5165576 0.4836999 0.7259502 0.5601894 0.6975592 0.815299 0.6596873 0.5140173 0.6530569 0.7824498 0.6593131 0.9280792 0.6441677 0.7640697 0.8475533 0.8622561 0.9285088 0.6386165 0.7135453 0.9278192 0.5561953 0.8811654 0.6502158 0.6408262 0.6358907 0.9457795 0.8906515 0.9230626 0.873773 0.7674252 0.825417 0.8494169 0.7664876 1.009541 0.9285821 0.9240796 0.9218729 0.881642 0.9705726 ]
</Nnet> 
